#ifndef WEIGHTS_H_
#define WEIGHTS_H_

#include "defines.h"


const custom_float weights2[HIDDEN_SIZE][OUTPUT_SIZE] = {0.468734, 0.110942, -0.518186, -0.072508, 0.069256, -0.381726, -0.204760, 0.308572, 0.785476, 0.050391, 0.970360, -0.599946, -1.068379, -0.099664, -0.571296, 0.681861, 0.644471, 0.028726, -0.096866, -1.140561, -0.427850, -0.274962, -0.099511, 0.226705, 0.882338, -0.505691, -0.393142, -0.052199, 0.488765, -0.474736, 0.210894, 0.226939, -1.296394, 0.101560, 0.237841, 0.234431, -0.557994, 0.199092, -1.252449, 1.204178, 0.596454, -0.230656, -1.075070, 0.323697, -0.128711, 0.891060, -0.117396, -0.811482, 0.256069, -0.434959, -0.083914, 0.191611, -0.488896, -2.081394, 0.979159, -0.386521, 0.812823, 0.139907, -0.078532, 0.317517, 0.286891, 0.183705, -0.236262, 0.590535, -0.384887, -0.587222, 0.514529, -0.302351, -0.094042, 0.484321, -0.748909, 0.323291, -0.294134, -0.185574, 0.214219, 0.504308, 0.164504, 0.107899, 0.674325, -1.715882, -0.181261, 0.456606, 0.561132, -0.323292, -0.584398, -0.595544, 0.024298, -0.655637, 1.309973, -1.020250, -0.068284, -0.715923, 0.472897, -0.940318, 1.105272, -0.491020, 0.405474, -0.228034, -0.438287, 0.028334, -0.172924, -0.263510, -1.564997, -0.966699, 0.288008, 1.021124, 0.287722, -0.912990, 0.639327, 0.710436, -0.744648, -0.605843, 0.455865, -0.762582, 0.458869, 0.486948, 0.178737, -1.419144, 0.578682, -0.143627, 1.211527, -1.252096, 0.449997, -0.846045, 0.353314, -1.423515, 0.192502, 0.465899, 0.113347, 0.017245, -0.830551, 0.871434, 0.317997, -0.035918, 0.922473, -0.118665, 0.774003, -0.996003, -0.128786, 0.225719, 0.639763, 0.436032, 0.488723, 0.483268, -1.040750, 1.044850, -0.674351, -0.207627, -1.337710, 0.204253, 0.030971, -0.110580, 0.246242, 0.970078, -1.298614, 0.202035, -0.260826, 0.023919, 0.554485, 1.064426, 0.269061, 0.596284, 0.081788, 0.762859, -0.380651, -0.259537, 0.205126, 0.970182, -1.465950, -1.219756, -0.503057, 0.038155, -0.446060, 0.547922, 0.840764, 1.206592, -0.499441, -0.513654, 0.509516, -0.021867, 0.692758, 0.859885, 0.117657, 0.018423, 0.118719, -0.565228, -0.218849, 1.088501, -1.008649, -0.172460, 0.182906, 0.465888, 0.553050, 0.831452, -1.849778, -0.394045, -0.884792, 1.219288, 0.073790, 0.258667, 0.398361, 0.722983, -0.496918, 0.373972, -1.056763, 0.780103, 0.355544, -0.523968, -0.680518, -0.975231, -0.397739, -0.962888, -0.545265, 0.352342, -0.581079, 0.084870, 0.122284, 0.771687, -0.412291, -0.044341, 0.647428, -0.502590, -1.366495, -0.359807, 0.621736, 0.806060, 0.416493, 0.469234, -0.377073, 0.376445, 0.221595, 0.180459, 0.722547, -0.698115, 0.088076, -1.000401, 0.013149, 1.134890, -1.043901, 0.297167, 0.056432, -0.354955, -0.556206, 0.153190, 0.172390, -0.178664, 0.623916, -0.324654, -0.249063, -0.147840, 0.174595, -0.449547, 0.014548, 0.948195, -0.207972, -1.255287, 0.026844, -0.071485, 0.378261, 0.566803, -0.405752, -0.012098, 0.046009, 1.102076, -0.782827, 0.518913, -0.521549, -0.917152, -0.656656, 0.462689, 0.596184, -0.582394, 0.256033, 0.292962, -0.674022, -0.180275, 0.191480, -1.111608, 0.592365, -0.105994, 0.898236, -0.883968, 0.352143, 0.615909, -0.833029, 0.322245, -0.620337, -0.443417, 0.364996, 0.872733, 0.183096, -0.112848, 1.552716, 0.292962, -0.725753, 0.456531, 0.632236, 0.695194, -0.269667, -1.729940, 0.037392, 0.131287, -0.755117, -0.992671, -0.298123, 0.847384, 0.880033, -1.436225, 0.011324, -0.558943, -0.183364, 1.414731, -0.104643, 0.551671, -0.085491, -0.834260, 0.722245, -0.282473, 0.034104, -0.360392, -0.580589, -0.806264, -0.099101, -0.308488, 0.295184, -0.481369, -0.917392, 0.154451, 0.235154, 0.420931, -0.691280, 0.255257, 1.023048, -0.008166, 0.380665, 0.436393, -0.333076, 0.201611, -0.267871, -0.764968, -0.148321, 0.512025, 0.367663, 0.329436, -0.021518, -1.500402, -0.977832, -0.294005, 0.305805, 0.917694, 0.273105, 0.766769, 0.152644, 0.245617, -1.609570, 0.918147, -0.083832, -0.097365, 0.887067, 0.867772, 1.197357, -0.589290, 0.469489, 0.463819, -1.738864, 0.276199, -0.441264, 0.670839, 0.673141, 0.468203, 0.121620, -1.229078, -0.063220, -0.195658, 0.284684, 0.592494, 0.315068, -0.795186, 0.203635, 0.672056, -1.115164, 0.713550, -0.227924, 0.118744, 0.706449, 0.085303, -0.640035, 0.547196, -0.682967, -0.070538, -1.044990, -1.259157, -0.089920, 1.558982, 0.056799, 0.749059, -0.683854, 0.681163, -0.431849, 0.228825, 0.659023, 0.559140, 0.341444, -0.707188, -0.663801, 0.142361, 0.906784, 0.121678, -0.042641, -0.198553, -1.546605, -0.279099, -0.336103, 1.037945, 0.545632, 1.195911, -1.426334, -0.577683, -0.024421, 1.090163, -0.322096, 0.180467, 0.211367, -0.944839, 0.025896, -0.173778, 1.136136, -0.864948, 0.404057, -1.085281, -0.378671, -0.238939, 0.150346, 0.800478, -0.741075, 0.084098, -0.396093, 0.868178, 0.315221, -0.784865, -1.121226, 0.058746, -0.443461, 0.343586, 0.971925, -0.326710, -1.392276, 0.729070, -0.366830, 0.004531, -0.174902, 1.117411, 0.368127, 0.032007, 1.619624, -1.307040, -0.447469, 1.049566, -0.264478, -0.380237, -0.532398, 0.835872, 1.116835, -0.171890, -0.241558, 0.041458, 0.845484, -0.361092, -0.165548, -1.015478, -0.474821, 1.053103, -0.584791, -0.676194, 0.978522, -0.303654, -0.331894, 0.587833, -0.782375, 0.636474, -0.179703, -0.276173, 1.039488, -0.093627, -0.225942, 0.644906, 0.758194, -0.039673, -0.782932, -0.302188, -0.535418, 0.853568, -0.804766, 0.594250, 0.028906, 0.267903, -0.395398, 0.626348, 0.206605, 1.008749, -0.842994, -0.839723, 0.689461, 0.952588, -0.678620, 0.551672, 0.159728, 0.042451, 0.781106, 0.196028, 0.301087, 0.307909, 0.071517, 0.509875, 0.383558, -0.857324, 0.584814, 1.315298, 0.128602, -1.345084, 0.299923, 0.111039, 0.472920, -1.003810, 1.045560, -0.475243, -1.323073, 0.932516, -0.497455, 0.701912, 0.064627, -0.495909, -0.781594, -0.555801, 0.006184, 0.245221, 0.541268, 0.912561, -0.603535, 0.009756, -1.564174, 0.483608, -0.496976, -0.507821, 1.061390, 0.597759, -1.263870, -0.171775, 0.639008, 0.669826, -0.512468, 0.513351, 1.060761, -1.457332, 0.593862, -0.728022, -0.493536, 0.819728, 0.591424, -0.218023, 0.636511, 0.106691, -0.952979, -0.630161, -0.310255, 0.602625, 1.331492, -0.864239, 0.486916, -0.092244, 0.477013, -0.105950, 0.728983, -1.267341, 0.420308, -0.858121, 0.553199, -0.758410, -0.209025, 0.405589, 0.342478, -0.736282, -0.835761, 0.358294, -0.099220, -0.077974, -0.325066, -0.217711, 0.642310, 0.284798, 0.153539, -0.580426, -0.297442, -0.514873, -0.107850, 0.446968, 0.155569, -0.009911, -0.372878, 0.717341, -0.374500, -0.151367, -0.206214, -0.320650, -1.248973, 1.650636, 0.761689, 0.308902, -0.474135, -0.433263, 0.253773, 0.234558, 0.279878, 0.357476, -0.001261, 0.318272, -0.538579, -0.448166, 0.132126, -0.005458, -0.579047, 0.462614, 0.838305, 0.701441, -0.314591, 0.318492, -0.606468, 0.563714, -0.472299, -1.689817, -0.044862, -0.931112, 0.255268, -1.043767, -0.656297, 0.889044, 0.686896, -0.514808, 0.208179, -0.014376};
const custom_float bias1[HIDDEN_SIZE] = {-0.075241, 0.267989, -0.010824, -0.012621, 0.129969, 0.017113, 0.036195, 0.261806, -0.149554, 0.064819, 0.500326, 0.046523, -0.170468, -0.077939, 0.335032, -0.392056, -0.475756, -0.089074, -0.220773, -0.091338, 0.435027, 0.103111, 0.069101, 0.042923, -0.037402, 0.031014, -0.218362, 0.015482, 0.204118, 0.133967, 0.058755, 0.080335, 0.297980, -0.192690, 0.094710, -0.146649, 0.442314, 0.148420, 0.061326, 0.017971, -0.103826, -0.257281, 0.087363, 0.293248, -0.061922, 0.213219, 0.061111, 0.090906, 0.282365, -0.023923, -0.146938, -0.274574, 0.177069, 0.135650, 0.129337, 0.106729, -0.152069, 0.050041, -0.172183, -0.040079, 0.116578, -0.083818, -0.127092, 0.240112};
const custom_float bias2[OUTPUT_SIZE] = {-0.063744, -0.146561, 0.268520, -0.222760, 0.018121, 0.171165, -0.150703, -0.343272, 0.188471, 0.280764};

#endif
